#ifndef MOTOR_NN_WEIGHTS_H
#define MOTOR_NN_WEIGHTS_H

#include <math.h>

// FNN Architecture: 3 inputs -> 20 nodes -> 20 nodes -> 1 output
// Total Parameters: 521

// Weights for Layer 1: Shape (3, 20)
const float w1_weights[3][20] = {
  {0.558402f, -0.153512f, -0.445257f, -0.246180f, 0.443245f, 0.786390f, 0.831721f, -0.286921f, -0.266510f, 0.166750f, -0.735490f, -0.304258f, -0.460302f, -0.629950f, 0.357022f, -0.059460f, -0.066560f, -0.295190f, 0.203514f, -0.228132f},
  {0.293905f, 0.604910f, -0.021765f, -0.285900f, -0.692710f, -0.603148f, -0.661119f, -0.500833f, -0.316873f, -0.228342f, 0.682792f, -0.332946f, -0.201761f, 0.313470f, -0.214018f, 0.062654f, -0.432508f, 0.457698f, 0.207816f, 0.178342f},
  {0.088913f, -0.057550f, -0.179187f, -0.433775f, 0.440930f, -0.406190f, 0.128240f, -0.280674f, 0.733517f, -0.392506f, -0.265202f, -0.503836f, -0.251994f, 0.101996f, -0.247539f, 0.107459f, 0.593251f, 0.182507f, 0.419399f, -0.293511f}
};

// Biases for Layer 1: Shape (20,)
const float b1_biases[20] = {
  -0.013781f, -0.121938f, 0.000000f, 0.000000f, -0.057575f, 0.065386f, -0.274357f, 0.000000f, 0.052211f, -0.029948f, 0.034480f, 0.000000f, 0.000000f, 0.204445f, 0.073568f, -0.118017f, 0.045320f, -0.021291f, -0.064651f, -0.052311f
};

// Weights for Layer 2: Shape (20, 20)
const float w2_weights[20][20] = {
  {0.174538f, 0.587980f, 0.020313f, 0.158975f, 0.483282f, 0.325524f, -0.209445f, -0.406513f, 0.003790f, 0.051752f, -0.263436f, -0.079828f, 0.174377f, -0.014878f, 0.344795f, -0.188333f, 0.163315f, 0.357858f, -0.200662f, -0.270321f},
  {-0.172772f, 0.266496f, 0.116892f, 0.467400f, 0.233660f, 0.117486f, -0.026740f, 0.509708f, 0.240062f, -0.249186f, -0.215399f, 0.699555f, 0.068192f, -0.173132f, -0.238211f, -0.274757f, -0.002277f, 0.439521f, -0.041542f, 0.304123f},
  {0.014503f, 0.054491f, -0.183129f, -0.061560f, 0.257580f, -0.023300f, -0.304063f, 0.222066f, 0.223777f, 0.382219f, 0.285370f, 0.337644f, -0.354641f, -0.316358f, -0.255925f, 0.054808f, 0.164225f, 0.373480f, 0.341931f, -0.072701f},
  {-0.188312f, -0.108491f, -0.276371f, -0.115087f, 0.172020f, 0.072564f, -0.030289f, 0.356690f, 0.377105f, 0.256756f, -0.234269f, -0.032649f, -0.271976f, 0.373394f, -0.114148f, -0.361563f, -0.134548f, 0.108724f, 0.354238f, 0.353766f},
  {0.291535f, -0.137726f, -0.532727f, -1.487210f, -0.001930f, -0.074464f, -0.262104f, -0.043791f, -0.349237f, -0.026710f, -0.311233f, 0.398513f, 0.202597f, -0.072775f, 0.179586f, -0.086620f, 0.044277f, -0.067239f, -0.302370f, 0.343113f},
  {0.008315f, -0.090670f, 1.788553f, -2.543995f, 0.335665f, 0.387099f, -0.087565f, -0.703528f, 0.259106f, -0.272193f, -0.290412f, 1.203630f, 0.119863f, -0.391020f, -0.310661f, 0.033913f, -0.045863f, -0.339068f, 0.266321f, 0.321259f},
  {-0.306191f, 0.264149f, -1.638329f, -1.886615f, 0.296196f, -0.187570f, 0.395801f, -0.164873f, 0.343898f, -0.152988f, -0.354164f, 0.186190f, -0.154173f, 0.330812f, 0.008564f, -0.100722f, 0.069245f, 0.269233f, -0.046362f, -0.341651f},
  {0.046296f, 0.129366f, 0.276608f, -0.208493f, 0.281779f, -0.346056f, 0.179103f, 0.365811f, -0.255616f, -0.332553f, 0.050003f, -0.307253f, -0.163387f, -0.375049f, 0.086980f, 0.299384f, 0.063556f, 0.263166f, 0.044599f, 0.084766f},
  {0.271964f, 0.375128f, 0.397192f, 0.695614f, 0.845865f, 0.353017f, 0.923285f, -1.589877f, 0.637863f, -0.359495f, -0.292818f, -0.730140f, 0.029565f, -0.895025f, -0.307217f, 0.077174f, 0.718360f, 0.958721f, -0.121822f, -0.053996f},
  {-0.162413f, -0.093126f, 0.115515f, 0.241666f, -0.306668f, -0.320172f, -0.074720f, 0.306245f, -0.280498f, 0.081722f, -0.378532f, -0.014989f, 0.179061f, -0.208840f, -0.244017f, -0.382123f, -0.380320f, -0.142964f, 0.342507f, 0.141725f},
  {-0.191271f, -1.507556f, -0.086330f, 0.444118f, -0.912665f, -0.919669f, 0.057326f, 0.494751f, -0.155535f, 0.124137f, -0.057447f, 0.398035f, -0.071653f, 0.194345f, 0.153207f, 0.161072f, -0.049092f, -0.545899f, -0.003519f, -0.410016f},
  {-0.259147f, -0.251320f, 0.329017f, 0.171267f, -0.160458f, 0.321034f, -0.202992f, 0.205129f, 0.288014f, 0.056726f, -0.039950f, 0.125945f, -0.067145f, 0.276810f, 0.304221f, 0.239972f, 0.006713f, -0.039544f, 0.201683f, 0.157505f},
  {0.328257f, -0.287184f, 0.019405f, -0.087583f, 0.100471f, 0.029193f, 0.342433f, -0.124152f, -0.287661f, 0.108614f, 0.346661f, -0.101669f, -0.301680f, -0.070455f, -0.329192f, 0.181836f, 0.107115f, -0.337170f, -0.130817f, -0.207221f},
  {-0.403026f, -0.174254f, -0.489054f, -0.217988f, 0.011132f, -0.252360f, -0.105754f, 0.394599f, -0.123898f, -0.020563f, -0.074475f, -0.649602f, 0.081861f, -0.501460f, -0.253619f, 0.147128f, -0.211052f, -0.129179f, -0.047158f, 0.177981f},
  {0.416649f, -0.325569f, -0.116257f, -0.015435f, -0.071286f, 0.407173f, 0.240009f, -1.163340f, 0.058699f, 0.229582f, -0.107624f, 0.132756f, -0.373730f, 0.394135f, -0.140308f, 0.067028f, -0.560525f, 0.004819f, -0.303954f, -0.203988f},
  {0.342729f, -0.308724f, 0.282828f, -0.039488f, 0.253892f, 0.339735f, -0.243034f, 0.342712f, 0.011670f, 0.183810f, 0.130691f, 0.240042f, 0.362305f, 0.078586f, -0.083049f, -0.275402f, 0.295393f, -0.329668f, -0.310932f, -0.012151f},
  {0.179451f, 0.183498f, -0.312915f, -0.061513f, 0.394640f, 0.012384f, -0.023333f, -1.468238f, 0.152675f, -0.297177f, 0.175948f, 0.211462f, 0.063469f, 0.102994f, -0.311430f, 0.015721f, 0.100768f, 0.129392f, -0.347479f, -0.051325f},
  {0.038214f, -0.167813f, 0.113960f, 0.072880f, -0.091840f, 0.221850f, 0.247688f, 0.278947f, 0.256938f, -0.270647f, -0.357713f, -0.115829f, -0.204701f, 0.064887f, -0.224752f, -0.078345f, 0.343903f, 0.248201f, 0.286620f, -0.210981f},
  {0.394933f, 0.466760f, 0.182187f, -0.007252f, -0.301819f, 0.205415f, 0.168303f, 0.569998f, 0.029504f, -0.285215f, -0.016715f, -0.262380f, -0.345249f, 0.014309f, -0.371759f, 0.148430f, -0.146516f, -0.105406f, -0.344745f, -0.303306f},
  {0.193714f, 0.217166f, -0.153593f, -0.239631f, 0.170899f, -0.272061f, 0.318937f, -0.172887f, 0.026781f, 0.200929f, 0.365874f, 0.360223f, -0.121046f, 0.042557f, -0.330538f, -0.320943f, -0.231064f, 0.030786f, -0.090500f, 0.315271f}
};

// Biases for Layer 2: Shape (20,)
const float b2_biases[20] = {
  -0.001106f, -0.028527f, -0.048621f, -0.019381f, 0.038928f, 0.008499f, 0.007637f, -0.119559f, -0.015112f, -0.031674f, 0.000000f, 0.182703f, -0.111334f, 0.188307f, -0.022148f, -0.072797f, -0.158112f, -0.024328f, -0.031034f, -0.053541f
};

// Weights for Layer 3: Shape (20, 1)
const float w3_weights[20][1] = {
  {0.150367f},
  {0.390844f},
  {0.366049f},
  {-0.253243f},
  {0.193367f},
  {0.336766f},
  {0.018237f},
  {0.447164f},
  {0.059828f},
  {-0.376033f},
  {-0.231638f},
  {-0.168664f},
  {-0.189304f},
  {-0.066179f},
  {-0.215392f},
  {-0.085913f},
  {0.121794f},
  {0.192121f},
  {-0.246233f},
  {-0.000470f}
};

// Biases for Layer 3: Shape (1,)
const float b3_biases[1] = {
  0.068218f
};

#endif // MOTOR_NN_WEIGHTS_H
