#pragma once

// dense_202
static const float W1[6][16] = {
  {0.19962016f, -0.41119123f, -0.14940843f, -0.03108614f, -0.27270460f, 0.57568455f, -0.37158582f, -0.35771313f, 0.54760939f, 0.10282713f, 0.79496050f, 0.01340921f, 0.14463443f, -0.41923445f, -0.04269519f, 0.70311677f},
  {-0.37083200f, 0.26882908f, -0.22448015f, 0.04819179f, -0.06527435f, -0.04384226f, 0.06345697f, 0.42531866f, -0.50123519f, -0.24983761f, -0.06390152f, -0.03421333f, -0.22696318f, 0.25845432f, 0.36325532f, -0.25334916f},
  {0.31395000f, 0.30932826f, -0.08375591f, 0.26548380f, -0.08560186f, 0.21155153f, 0.10285790f, -0.48035246f, 0.21918449f, -0.37634069f, -0.25085345f, 0.36751086f, -0.44142833f, -0.39681238f, 0.35685179f, 0.32074690f},
  {0.01813944f, -0.11067584f, 0.17884499f, -0.46851611f, 0.11808687f, 0.11385615f, -0.43996122f, -0.34406757f, 0.25839657f, -0.35165095f, 0.06299749f, -0.39912301f, 0.09196699f, -0.00027371f, -0.37987506f, 0.11865512f},
  {-0.07849226f, -0.08845335f, 0.37404311f, 0.56782955f, 0.30425939f, -0.09980148f, 0.32677180f, -0.34957582f, -0.69716620f, -0.36317921f, -0.23358093f, -0.25683916f, -0.24301542f, -0.05471614f, -0.08908398f, -0.61464363f},
  {-0.16162507f, -0.10331982f, -0.39513856f, 0.00122557f, 0.24715735f, -0.57862931f, 0.15798089f, -0.27880868f, 0.37069848f, -0.23151821f, -0.15963933f, -0.75791675f, 0.17829959f, 0.03864439f, -0.09084061f, -0.26965407f},
};

static const float B1[16] = { 0.09940933f, -0.15436870f, 0.00000000f, -0.08176555f, -0.02947282f, -0.00362857f, -0.02198199f, -0.04319854f, -0.08476581f, 0.00000000f, -0.00755040f, -0.12872583f, -0.07996839f, -0.04028418f, -0.10917848f, 0.12121874f };

// dense_203
static const float W2[16][16] = {
  {-0.20756736f, 0.15239228f, -0.10358423f, -0.28041494f, 0.19056755f, 0.01413505f, -0.46631625f, -0.10519229f, -0.32548642f, -0.33485299f, 0.19123070f, -0.28654882f, 0.13670756f, 0.60065854f, -0.22776152f, 0.26819655f},
  {-0.37054828f, 0.13515443f, 0.30142310f, 0.18274342f, 0.14101546f, -0.21941675f, 0.10292628f, 0.11303243f, 0.13580522f, -0.19236155f, -0.29647538f, 0.01518430f, 0.02055657f, -0.07832624f, -0.33005890f, 0.30326855f},
  {-0.05516154f, -0.20277576f, -0.17168835f, 0.07360199f, 0.19104698f, 0.12157968f, 0.28963920f, 0.14549145f, 0.02595803f, -0.17519143f, -0.19449936f, -0.37143034f, 0.23291424f, -0.18049592f, -0.07428232f, -0.41720557f},
  {0.19922607f, -0.42483723f, -0.30101758f, -0.09406015f, 0.09452783f, -0.09364275f, 0.21293549f, 0.14974999f, 0.23420864f, -0.35827956f, -0.01366390f, 0.17836232f, -0.10141534f, -0.51576847f, -0.03768735f, -0.24828760f},
  {-0.33130080f, -0.19920585f, -0.27931234f, -0.01596361f, 0.24264340f, 0.17083311f, 0.38076583f, 0.04380310f, 0.13172740f, -0.45598197f, -0.09828226f, 0.46530417f, -0.19498192f, -0.40951955f, 0.51043272f, 0.48339748f},
  {-0.04928233f, 0.30739239f, -0.17607000f, 0.05115482f, 0.00179183f, -0.27182472f, 0.36969411f, -0.34485391f, -0.27231598f, 0.31904784f, -0.49411693f, -0.29259789f, 0.26586422f, 0.27230316f, -0.22819176f, 0.06492216f},
  {-0.18747593f, -0.09849200f, 0.02903014f, 0.12641609f, -0.18298320f, -0.01844644f, 0.02121043f, 0.38959661f, 0.04074672f, -0.12212036f, -0.23233159f, 0.38415799f, -0.39417988f, -0.21227175f, 0.72112536f, -0.10513431f},
  {-0.21202317f, 0.02966082f, -0.54786563f, -0.34965628f, 0.00035008f, 0.11404513f, -0.33656132f, -0.20618297f, -0.36478400f, -0.04044968f, -0.29544741f, -0.57302666f, 0.41851655f, 0.17900831f, -0.47695652f, -0.26718679f},
  {0.16704570f, -0.04689585f, -0.16405891f, -0.01755610f, 0.26906219f, -0.17373176f, 0.02448142f, 0.16642113f, -0.06012807f, -0.22848181f, -0.05266896f, -0.34147650f, -0.03643356f, -0.09339954f, -0.34768811f, -0.56466013f},
  {0.31411389f, -0.11456370f, 0.33084241f, -0.28884396f, 0.34840927f, -0.31176555f, -0.27940705f, -0.33815303f, -0.08085197f, 0.33848080f, -0.36747485f, -0.19854939f, 0.27052495f, -0.09834498f, -0.18907067f, -0.08989245f},
  {0.24533510f, 0.44875655f, -0.27803129f, -0.35689735f, -0.19179988f, -0.69189000f, -0.02620297f, -0.03686854f, -0.01142172f, -0.39420882f, -0.07857117f, -0.26561394f, -0.11430887f, 0.48133689f, -0.55440706f, -0.66764992f},
  {0.13344929f, 0.15425572f, 0.20834927f, -0.33281654f, -0.19222906f, 0.32062411f, 0.30025691f, -0.26611888f, -0.28766942f, 0.25704533f, 0.40560567f, -0.26118070f, -0.16433099f, -0.45791838f, 0.09477905f, 0.26584089f},
  {-0.04696932f, -0.11950008f, 0.21775487f, -0.40266526f, 0.26698929f, -0.21370694f, -0.10193916f, 0.30708757f, -0.16836658f, -0.40502188f, 0.30019820f, 0.06386960f, 0.41153362f, 0.27199158f, -0.15140283f, 0.15002537f},
  {0.27377841f, 0.16584854f, 0.26080352f, -0.40942460f, 0.23897529f, 0.35284963f, 0.42237547f, 0.11134432f, -0.08073806f, -0.34518918f, 0.12497151f, 0.25823218f, -0.34065515f, 0.43866354f, 0.30611151f, 0.26521772f},
  {-0.35185084f, 0.09861798f, -0.22392832f, 0.05223696f, 0.09110542f, 0.45467219f, -0.15123290f, -0.05388750f, -0.23543483f, 0.21013977f, -0.22343066f, 0.00265420f, -0.29895142f, -0.18133794f, -0.12419290f, -0.28503138f},
  {0.06761891f, 0.78433454f, 0.44680178f, 0.46269906f, -0.33111590f, 0.15386173f, 0.04829142f, 0.61388284f, 0.09177823f, -0.08703536f, 0.03891645f, -0.53571612f, -0.10559015f, 0.70087367f, -0.47252086f, 0.01353361f},
};

static const float B2[16] = { -0.10422767f, -0.10967094f, -0.08704007f, -0.00116926f, -0.18734610f, 0.07325856f, -0.04887533f, -0.14001054f, -0.15077628f, -0.00137775f, -0.04021936f, 0.04763229f, -0.05920617f, 0.03796376f, 0.07522609f, 0.09160022f };

// dense_204
static const float W3[16][16] = {
  {-0.22972466f, 0.27057424f, 0.20816748f, -0.19669022f, -0.26981258f, -0.01470344f, -0.17646208f, -0.19161320f, -0.09938679f, -0.40989447f, -0.25309718f, 0.01054727f, 0.17345089f, -0.37130478f, -0.18402861f, 0.19737493f},
  {-0.01025223f, 0.00341282f, 0.13453783f, 0.15447648f, -0.08941329f, -0.25433311f, 0.07579652f, 0.16677408f, 0.09138574f, 0.38177827f, 0.43546936f, -0.31037113f, 0.19053504f, 0.00533178f, 0.16660482f, 0.36033294f},
  {-0.03999931f, -0.11085250f, -0.18703414f, 0.30441201f, -0.01006823f, 0.31482133f, -0.05886175f, -0.20980041f, -0.11922634f, 0.10728779f, -0.23363847f, 0.01405782f, 0.24811330f, 0.21880110f, 0.03974831f, 0.26337412f},
  {-0.06054369f, 0.28196153f, 0.11623796f, 0.11697222f, 0.34048986f, 0.20545225f, -0.23751080f, -0.20240100f, -0.48088661f, -0.08000044f, -0.01172191f, 0.09656359f, -0.03788904f, -0.37249154f, -0.41991720f, 0.13518056f},
  {-0.20410287f, -0.46047118f, 0.16334672f, -0.01515427f, 0.02870970f, 0.39867625f, 0.37525773f, -0.08643422f, -0.02545258f, -0.12461043f, -0.32270116f, -0.42038774f, -0.35197070f, -0.41260821f, -0.06104004f, 0.31701866f},
  {0.04322913f, -0.09809391f, 0.00569092f, -0.21380825f, -0.07691094f, 0.01831505f, 0.18364404f, -0.14325576f, 0.14851281f, 0.14164837f, -0.36433041f, 0.17865129f, -0.45201868f, 0.11906129f, -0.33941528f, 0.14042111f},
  {0.25426197f, 0.13706164f, 0.16569619f, -0.36954024f, -0.26076809f, 0.23840913f, 0.12889190f, 0.41847864f, -0.27724904f, -0.28792697f, -0.01063215f, 0.06408940f, 0.26895475f, -0.15533736f, 0.33021957f, -0.22610150f},
  {0.18621087f, -0.02575644f, 0.21913111f, -0.20743191f, -0.30226389f, -0.18625212f, 0.34095657f, -0.24004316f, 0.20001480f, -0.39079085f, 0.13855208f, 0.25498682f, -0.39989737f, 0.22915091f, -0.00595922f, 0.12727366f},
  {0.06714419f, -0.37396425f, 0.23468071f, 0.02883320f, -0.19445145f, 0.19059941f, 0.34878892f, -0.21715789f, -0.01259633f, 0.03044068f, 0.35864118f, -0.10832970f, 0.22360557f, -0.12405111f, 0.20600523f, -0.24103929f},
  {0.34674019f, -0.16134582f, 0.49012366f, -0.25235936f, -0.01270273f, -0.12002960f, 0.22028467f, 0.35580102f, -0.09804939f, -0.02032010f, -0.30857801f, 0.38775811f, 0.32651556f, 0.23714396f, 0.12924801f, -0.25812909f},
  {0.34269020f, -0.30152860f, 0.28847468f, -0.32434613f, 0.37690344f, 0.17669569f, 0.29447713f, -0.24961765f, -0.36282459f, -0.25807771f, 0.07031158f, -0.36407200f, -0.00055781f, -0.46873847f, 0.24572001f, -0.16069677f},
  {-0.53878200f, 0.20761736f, -0.15566345f, 0.40219975f, -0.05404952f, 0.81360203f, 0.77647692f, -0.01119176f, -0.11836313f, -0.30282283f, -0.48986676f, -0.27803853f, -0.04329901f, 0.45469725f, 0.42761877f, 0.16326363f},
  {0.30303395f, 0.06471472f, 0.00548682f, 0.15331694f, -0.33606401f, 0.08248809f, -0.25408578f, -0.36147827f, 0.06220128f, -0.24140048f, -0.05597489f, 0.09984177f, -0.12873428f, -0.42158329f, 0.05266563f, -0.27859086f},
  {-0.29173943f, -0.34797335f, 0.10890459f, 0.54984891f, -0.02662733f, -0.00490754f, -0.03869606f, 0.13562796f, -0.13648085f, -0.41777968f, 0.45963758f, 0.20691784f, -0.44935235f, -0.64581817f, -0.22242106f, 0.13970999f},
  {0.17063151f, 0.26797259f, 0.19756614f, 0.06978561f, 0.06966344f, 0.73025870f, 0.54696172f, 0.23246297f, 0.01496571f, 0.08054101f, 0.36781916f, -0.48740143f, 0.44745997f, 0.30252045f, 0.61928278f, -0.44624120f},
  {-0.36323199f, -0.21958081f, -0.07106406f, -0.41939816f, -0.42137104f, 0.32643691f, -0.40873939f, -0.27595577f, 0.10989241f, 0.34878588f, -0.33396921f, -0.30887073f, -0.64324033f, 0.32975709f, 0.24095748f, -0.25712481f},
};

static const float B3[16] = { -0.04986768f, -0.07828383f, -0.02502770f, -0.06003591f, -0.05901602f, -0.03067343f, -0.07356367f, -0.21799445f, -0.07503556f, -0.06300455f, -0.07265761f, -0.07913644f, 0.02190935f, -0.06041096f, -0.08839145f, -0.03952738f };

// dense_205
static const float W4[16][1] = {
  {0.07076665f},
  {0.55452752f},
  {0.23428273f},
  {0.53455186f},
  {0.05917089f},
  {-0.10260177f},
  {-0.10086807f},
  {-0.29799882f},
  {0.16346838f},
  {-0.00862925f},
  {0.36853209f},
  {0.38972026f},
  {-0.26519424f},
  {-0.25012520f},
  {-0.43212783f},
  {0.29409650f},
};

static const float B4[1] = { 0.00310060f };

